-3.03705176968111 -2.10655151473286 -1.51803161662396 -1.46137071196104 1.93377341873119 -6.86840745422016 1.84419709216435 -2.16435031833287 -0.480278840552596 -0.960769033234274 -3.44372220367129 -2.57322608669083 -2.55767522153337 -1.96937147660034 2.38071404780995 -5.81695304165129 0.93028585106479 1.37320118244061 -5.23712342105067 2.77534652834455 5.93332414974676 -1.01029983134941 0.063139765959995 2.70036404184462 -3.67694892924588 5.50931730100791 4.13797602682581 2.85786795189063 -6.70932352279066 -2.36827272010208 
-1.540166172316 -2.33861576700457 -6.23536817938593 0.685835331181154 7.39329531938679 -1.72679624787165 1.49137536864479 2.70544552051591 1.09171016586975 -0.229046599753488 -1.35001097261816 1.81809129150656 1.25842504240464 -1.4073158159502 5.79350352774579 -6.08012079706631 6.91249177214164 2.11537667884965 -6.73203475672143 1.13404839551333 5.31402112698317 -0.151120665698396 -5.55229839967684 -4.83612333371661 -8.18703470472715 3.77599733840915 4.83028033232414 8.27005712773036 -4.87455190259808 0.95378754539012 
4.27614960788646 -11.0272318577996 -3.54982018688978 -5.73743783375091 0.693980935016643 0.255843408937602 14.8650112237792 -8.06555755816767 -7.84283558583522 8.17817095127619 -0.458541852284305 1.25567033970907 -2.33188259805549 -13.3472402911834 2.92633233373885 -4.74335678103299 10.4958404720571 11.5156270103151 -2.51287302932941 5.18478534230113 -3.07759276726854 -10.4422823868322 1.82378748423878 -2.62774649217337 -0.0827947434414727 -1.39272302840403 2.17373392918097 -0.274950147981095 1.23116689975537 -3.290258772275 
0.846256365547275 -14.0031863214334 -2.25598821052216 17.3732622190615 -0.0818910155334502 5.51955816855067 8.76254138645789 -9.10097519615565 8.30829119663757 13.5993892749044 -2.61556900278531 0.245080270904284 2.11005883206057 -3.46935881633372 14.0192387691357 -0.446167998718136 -10.5267814147329 0.0234579915408789 1.32790657241251 -7.84613954716063 1.48642255744847 -11.1820043095756 0.676864061047995 -0.562167726648947 -6.14946327613736 -2.93423682663864 -0.674578325384109 -2.85246466149367 -0.965780283706056 1.44455791454345 
0.0534859065972778 0.676196502084097 0.0228259674350274 -0.117097053005724 -1.10835051808548 0.245685971210681 1.75409945829335 -3.49569685351719 -2.4319336565956 -0.633625958964664 0.311459212142093 -3.5849948067118 -1.50808599861786 -2.06602789036236 -2.17525291606514 2.56053336721796 -3.10240003777978 0.927271012643575 -0.848655296434848 -2.60280876773782 2.5767738081172 1.15573923381715 1.28362982553895 2.76949255131033 1.86277486228558 4.71800710083292 -1.04028908759824 0.303464822376096 -1.60860546509625 0.094603880892183 
0.648276358118327 0.320433555025009 -1.24022562760736 -1.17756933266457 1.23806512711862 -1.11372205242512 -1.83001956035577 -2.65205035409532 1.18974622577939 2.23856710711125 1.78650482681675 1.02586026308295 -0.252531949896599 -0.320631036205598 -2.66734999139416 1.46885593521293 0.952491069678278 -1.10469805534327 -0.195813041383342 -0.12703870949493 0.365311929087505 0.898754317983319 1.83512143116669 -0.521268740612854 0.191801497561376 -0.871271213825961 1.06565359951571 1.31485306368028 1.29524563010561 -0.406460282959767 
-2.03186351905451 0.812486865084167 3.45329731995949 -3.45717747595565 -1.98648074647498 1.17898834037147 1.11635713501497 -2.58354492890528 -0.149669214117572 -4.14066451234147 -0.384988309514816 2.49782696598927 2.90863071147421 -1.4746334987127 1.5713001527672 0.291677091364468 -1.17464886295068 -0.188670325774827 0.308084220055729 0.402520187593964 -0.143406146751525 1.69982665184349 -3.01948001183912 2.49340971935542 1.1278359447081 -1.05315624612347 3.02359219346077 -0.743390679233964 1.77096643881148 0.586068299654345 
0.0316026533258563 0.125401798542653 1.12334188224855 0.162273657415136 -1.06505853468697 0.812590523397102 0.347937816122481 0.673231051310476 -2.37172590317968 -5.19185301940953 -1.48741938640099 0.181008199961088 0.0938581520321616 1.83947661497467 0.727584078940585 -1.97580787841791 -1.93215079233018 1.2397347812606 0.241050825528571 -0.614314382744097 0.260043743627118 -0.135016729841277 -2.74887710541589 -0.820912545156592 0.486262435517576 -0.495099197976667 0.828887671510356 -1.68030470678814 -1.30403340274085 -1.15333281360312 
-0.735474833928436 -4.05750398121273 -1.06278896751725 2.7795356538309 0.900132961458132 -1.90171149443777 -0.825701266493249 1.79585320408061 1.1402312852679 3.98614229838309 -0.53904058851705 -1.7040062949481 0.695535571984063 -0.758319847173806 1.77998374534635 2.29348517342819 3.69348231197103 1.11052314036 -0.31357194694104 1.51545291941661 -2.05199474236794 -0.813524486052289 2.33349466915175 -2.4835046339947 -1.59575742569022 0.262953703652276 -0.525678740181641 -0.204617305077301 1.31630230233335 -0.518077689202459 
-1.16258896989162 0.219040415055373 -1.11982038195904 1.38996820925198 0.525151121679507 1.27943024935666 0.268872497957522 -0.917105153829407 1.96687215691358 2.84535216388008 0.521877246923857 -0.71169744405913 -0.975106066354552 -2.37081211648391 -1.6516498047465 1.42892418785292 1.63263337814354 -2.68788673422804 0.0701478431253882 0.580050790485079 0.444252758657769 -1.19305947472023 2.62066171905868 -0.375472930705745 0.357869275480038 -0.90915910277986 -1.94653837658333 1.89641936098888 1.77278430685609 0.63389184715894 
-1.04402046101143 -1.34842352393654 -2.98669089178284 -3.38323218258289 0.636017443701919 -1.36083644057104 -0.619716962317582 -1.87843887828078 -0.369742493854175 3.63328483021751 0.107700057239598 1.53460046564767 1.01409549395072 -1.71735316370231 -1.40218828972664 -0.651746760364356 -1.23624763043286 -1.92998750868007 1.03765103028956 0.599669202116639 1.00296715684974 2.50748301959938 -1.33036579382356 0.122377670035443 -0.181707624406156 1.96516566432278 3.60618322623557 0.269825844565362 1.85370913487999 0.907260202550398 
3.2376243496954 1.39839005093664 0.827132689014563 2.19140305001523 2.92497097874352 -1.06866572873041 -3.18225559723473 0.657796399318864 -0.0570919151686897 3.44915979599577 -0.0697380701891311 0.51257749955138 -3.42709309916705 1.16151315731519 -2.38728473024771 -0.448167742045218 3.37308412750712 -2.62757480809346 -0.761863044695196 -1.90078133587661 1.91224164818316 -0.334986997108581 2.94236684739859 0.125436841152785 0.683845338236052 -2.19771491079518 -4.64510365675211 -0.425071198814703 -0.370746750966432 0.160708483970275 
-1.93561666519057 0.314525826444571 2.35920897858573 -0.537064175340298 -1.86914968258681 1.03367732653037 1.89005384510106 -2.36733550393638 -1.58106302996281 -3.98559312072893 -0.117862952979747 1.41359243854641 1.69065460357878 -0.645716151090629 1.15898848114163 0.674508277239468 -1.7159720130633 1.17881463856391 -0.195622484741649 1.06184328295763 -0.229084821488249 1.41393093588788 -0.178862904017465 1.6367762075621 0.368793691254981 1.02356908066905 -0.0723616132268745 -1.15861493175975 0.581435458382629 -1.10184075099155 
-2.28255894861033 -4.49763329074325 -1.26918877905126 2.94463770493486 1.42883841762517 -2.01426059546325 1.32808516302565 1.37588548673462 -0.059679900883598 3.34348719199397 -0.868438872539724 -2.47160286792841 2.27237602776968 -3.54127787290354 0.851442642674446 1.16261485982821 0.0820954427254036 0.993449274645145 0.829612329279209 4.44764930110484 -0.889238851519261 -1.72443229032189 2.51855333103794 -2.19666104631514 -1.98487177406653 3.16439548701659 0.621880321667376 0.193901451912722 0.412574797948146 -0.395224448263337 
2.22831864808351 -0.623916792435245 -2.91140113343588 1.82359189478393 0.424077424544926 0.780569557824128 -1.97732921502415 0.254282958336273 -0.0890295491758203 2.59116676102251 0.573061930377408 -1.69131860201214 -2.7226489158884 1.74184854938947 -0.981356813497556 1.48656780807762 3.12342507838471 -1.60855579070575 -0.969027343700285 -0.661935668081406 -0.723480876108336 -1.53056893675795 0.818343272020003 -1.84852363229873 -1.10625898925546 1.52143687957449 -2.81336822951896 1.41494792868377 0.0996957560095652 1.23889619600335 
0.333414586883613 -0.799172015925791 1.56827800892784 0.722424851833802 -0.429582016358452 -0.507802075397787 -0.549961959955432 -1.7075429101359 0.364257688105502 0.466499857776102 1.82385915576003 1.6751336814089 0.186953908318755 -0.737095358155254 -0.0838665006267221 -0.610790086038927 0.132578825539339 0.360625675929912 -0.551171993869787 -0.0351117493124832 0.707594477550556 0.892895523457502 0.0129452313568186 1.00656016755524 0.212086535674017 -1.69310983163077 -0.478687646271312 1.18512772629276 1.39239670515927 -0.567512678137884 
-3.03845544971068 0.952055068111565 -1.80088237771538 0.181437371470377 1.49643626918837 1.27786302888659 1.06725791625564 0.216355735847237 -0.932056749009718 -3.04429952767042 0.900269680173649 0.643567568741556 0.4421480535894 -0.836005032963834 -0.176017858125825 -0.784005265782862 -2.40692793285911 -0.578444094407803 -0.0561261615442562 1.19549978009646 1.18911961559818 0.321659903201751 -1.48218360813867 -1.16988518431447 0.500392766548423 1.17205482567119 -0.0447932427459083 -2.69409554841307 1.35278459237638 0.893500492088997 
-3.34977974094295 -1.25227803868107 -0.604558054858366 0.678755560191278 0.0597415949368925 1.33242347416038 1.42293839701815 1.43296707286596 -1.07811372971546 0.00512525622153311 0.846856556228388 -0.772028354463762 1.2587356130696 -1.43313576275672 -0.78729101487631 0.0711700503540503 0.00201938519541753 1.42029147363519 0.959141744108521 2.26412216470628 0.167933148964684 1.20841096916353 -0.38290193858349 -0.252676078623305 0.0534650055284668 1.42427019740493 1.85184138971655 -1.93332372990103 1.00818059500622 -0.272591717514073 
-4.04019303619569 -2.01038224348396 -0.784677331817676 0.880424267964975 -0.881923141561465 1.45436650327355 2.46160183475213 1.42743575885422 0.948448282663056 -1.07766200635455 0.388992888742471 -2.43956641520448 2.13858964828672 -1.67330957438675 2.22359737957853 -0.263984638447815 -1.2350395331939 2.19576522315896 2.04366738745053 4.10621380364792 -0.953723760261514 -0.321409607989697 -1.29345821637299 0.394751292318812 -0.00148611096268302 1.86605208534328 3.34670541512501 -1.14234980915891 1.63028879493942 0.771024595443222 
0.231490072645886 -1.23847646121179 -0.984679836896401 3.44780748846335 -0.123263485677435 0.833183553111372 -1.23260987828011 2.19609785425517 -0.340628901550721 1.69092436911878 -1.27607010181408 -2.10222118614022 -3.84395103531957 -0.200026926690224 -1.0252342115491 0.970380825101802 0.13969851650983 -1.20011886337914 0.0654367790998251 -0.0987066848324243 0.912652058033497 -0.290486546321775 -0.167624351637482 -1.32281575331824 -0.758134044503995 0.805621595170295 -1.0563963824085 -0.751852457958561 0.701924373849581 -0.182958006789546 
0.684212960112208 0.141825336314048 -0.367793578502982 -2.1554659225463 -2.68498881075062 -1.11033493214947 -1.72473322013492 -1.00549457317846 1.66226773816009 1.96668618917796 3.49061806789378 0.46362523283832 2.14136746530142 1.13283356173674 0.562968192502297 0.00899845416939184 -0.798565190447887 -0.419662415012806 -2.17211535695174 0.59681602804547 -3.66626940574803 1.30880522378422 0.584254682921004 1.43745409065781 -0.0521237426068594 0.912818696245151 -2.76465406290617 0.239238892883637 2.07008068515941 -0.143139836109691 
1.38918059179465 2.81800171535693 -0.285715115913436 -2.2452946011437 1.47304537920307 -1.00252721596381 -0.530766696139117 -1.43041277409267 0.485984444346262 -7.1954448429764 1.11398611381792 0.992972129994728 -1.76978955990052 1.26551316542601 -1.50071605646908 -3.48397087301788 -4.27572977657183 -1.76140324715571 -2.11038530843947 -1.29756895392419 0.784800794877374 -0.458542794569382 0.258110711783582 0.0106679201603651 0.773636497956912 0.537268618679984 -1.4037142233675 -2.48216489538593 -2.65140938012076 0.271844159451734 
4.08856557139983 2.14016626425829 0.942360985445891 -1.03431850973841 -1.13573467526971 -0.0933633399278778 -4.1962491839754 -1.5266838675976 -1.29513764109874 -2.17737369415678 0.712754087442975 1.08601548324877 -1.69654067805922 1.40424113193469 -2.47190442916144 -1.62826567049501 -0.0922237286512456 -1.16004236323332 -3.71001398869718 -2.99801091720663 3.21830214155581 0.391276921868949 0.149873618482181 1.29186061393064 0.0709522929787811 -1.48981933985168 -3.69814771842865 -0.0902863045764111 -1.24374394410201 -0.0827610165470603 
-0.319766118013505 -1.25876223449813 -1.33893933018902 -2.21966279416583 -2.72488188812228 -2.14707784790752 -2.60061887935636 -0.28713424284063 1.76365434510471 1.72747615561915 3.83236362666811 0.968329035633529 -0.36784493442373 -2.29851632515351 0.04865681007851 1.21332873294566 -0.146426835993005 -0.64950022767354 -0.772279581277095 0.0966404149456769 -3.0554363577432 -0.504671532261437 0.700289799211742 1.41915677310819 -0.330578804792505 1.52721633264423 -1.35034609067355 -0.0331151505859199 3.74963985983352 0.65567508635965 
0.968040888015469 1.89605486981877 1.99400541731435 -0.15661813229471 -0.92275866218238 -1.72616243078793 0.646760581024348 -2.19206210174067 0.28823694222387 -4.76778600825416 1.76414243051658 0.443144094122871 -1.70423004556687 0.825645975444716 -0.585416284280928 -2.17121741497812 -1.96619805133653 -0.299725902504748 -0.639491702744818 -1.11621499402317 2.15970633548675 -1.16633631969569 -1.02639018171345 0.559981358321261 0.449892011893531 -2.5861085694025 1.09529528017012 1.46625461173591 -1.08737018472054 -0.272242491911678 
-0.0237117775412032 -1.97593991228465 -3.75929271831576 -2.00835525039113 0.762079756720587 -0.195095979161045 0.169336479580739 1.42204996929442 -3.1182712174216 2.24329548844429 -1.67567735814798 -1.75465436541543 1.01476949551433 0.0807791924713687 1.58782061683759 -2.20437191761241 -0.737633240771677 0.49244667388418 1.17552751324779 0.675534896744956 0.163832363345011 -0.4861842357034 -1.76640255180957 -0.677184158852093 -0.999058006646617 0.234617841372551 0.570032559992379 0.307323093257248 -1.10097774554576 0.148330549420537 
-1.18963244635206 -0.106873462516955 2.38140922915758 -2.45932011364801 -1.76230945182143 0.363429758707563 0.382986730821708 -0.345588872078005 -0.939925791162098 -3.44974884847886 0.314516690971688 0.845673918209601 2.79797246889576 -0.89743055418676 2.51188551110185 -2.8311062741965 -1.83488110827701 0.0934379489704774 0.106503239558959 0.531508230476478 0.196146654658437 0.712465940067294 -2.17482256421304 1.96017569419526 0.988232847585747 -2.27501708263669 1.83019826157619 -0.842595389964058 1.16593148551526 -0.997057226232467 
0.86311970408156 -0.00130049272706605 1.62449841740839 1.49894101220384 1.86909519312921 0.572612283636095 -1.67161588546193 -0.557639024470581 -1.19090100393288 -1.53308932591669 0.438850476168951 0.703850027645735 -0.679079473433128 0.961050363138164 -0.596199661095774 -0.758254059138283 -0.896344172136349 1.691214860889 -2.21648047458526 -0.967114375808517 0.136231443496717 -2.4726633171122 -0.436857710277299 0.423632023525363 0.339396528372131 -0.245138745900238 -2.28595737938648 1.01793710353399 -2.61535299920472 -1.55272447598385 
0.186119212131423 -0.10033441185051 0.987859139989333 -0.890721331925667 0.672244178730763 0.922103064732884 3.47624412323299 2.73881552612318 -3.3577368533307 -0.772365671312702 0.427476354251842 1.37257882439511 -1.27114954537763 0.810943491033063 -1.41226865115649 -0.368733089883931 -1.33039837789036 -0.65316023144308 0.544901441444545 -0.483067016884426 -0.769784895388449 1.78738754907925 -3.28874889578954 -0.504690311628583 -1.03039807104492 -0.55125159225006 1.71962020406783 -2.05860672672391 0.722405437303929 -1.45069270086514 
0.260670930228086 1.45978197740588 -0.0591678636662289 -3.59080708905766 0.664232615156852 -0.0305261920316253 0.141641560016171 0.395151510173596 0.911170404564724 -0.242362296059096 -0.361864208367942 1.30701912414389 3.1328397572814 0.15307423201361 0.0679827876458486 -0.305228699449204 -0.644830494092247 -0.818853604052899 -1.48171016585002 -0.51126851466826 -1.06763716310552 0.620825959909676 -0.0756770929477799 0.670048581176522 1.13523493486732 -0.828957186349112 -0.0276644841401126 -0.781950823377176 1.76922505726815 -0.955844905301304 
0.206391333420421 -0.450647542583027 0.754595241010841 -0.451998447607013 -0.43348943405386 -0.568737921163018 2.51317685874369 1.3758294170452 -1.65419740535065 -1.82752702771378 -3.66400128985944 -1.69830043282522 -1.14759728423413 0.668570310345195 0.990130635810161 -0.332569884237072 -1.02489133564581 0.793085917573759 -1.42501648757403 1.81801184448436 1.03807922070077 -1.74581110165594 -1.49855293097377 -0.763994367301542 0.624188772898319 -1.55967449629566 0.382650283117071 0.602273400984303 -2.06862442720143 0.874732353458641 
-0.626239070623342 0.964561442555073 0.0615847845993266 1.9497990318311 0.101341441575121 0.400825744184005 1.55465209983528 1.04547171498173 -0.290973615890075 -1.27196871318465 -2.29526570480871 -1.36725920677314 -1.30756803455964 -1.55369699414784 -0.500254381660688 -0.73339560098566 -0.102970808597522 -0.453600981060805 0.780388313431133 -0.658884107315046 2.77747938550614 -0.56178975638634 -0.349053143351076 -0.429947740949782 0.602386472401196 -1.94880605053005 1.27422526305957 0.358152992293953 -2.25657267607106 -0.615810033755998 
-0.725153819286859 -0.876363282967527 0.758353898690808 1.46347867872417 -3.65388951385745 1.00557037226059 1.50199525085624 -1.34105564481059 0.208650028273516 0.759743033749582 1.29133161655171 -0.406674069217396 -0.786264743520704 2.25279384979084 -3.28451558196243 1.37761851040004 0.584197846257096 -0.43503964411119 0.787175760541313 0.384977836639946 0.368483442180949 0.662976216520695 1.72110463042611 1.09383371656965 0.16829711129222 -0.175207274963345 0.371088225627753 1.5408158662661 2.69489602402571 -0.164615441309399 
-0.642023331543931 -0.117549175452224 1.67936997172384 3.88703495129806 -0.204560651287917 1.35968076552307 -1.05930582617039 -1.7218884435065 2.33625238350631 -1.18890088738152 2.21016281538973 1.69891554297265 0.196008084927255 -0.246433396385172 -0.808442160813456 1.25695871723639 1.61207442584613 -1.35013273252872 -0.79167318493083 0.728304338519742 -0.69168805936832 -1.30384550560523 2.00797066461523 1.47170729195261 0.730979802278689 -0.376367345586191 -1.55851864964891 1.03294270809665 1.70440895357666 -1.12520037009399 
-0.799457627670112 -0.398702829559101 -0.957624010958844 -1.11068505582268 1.2704810984132 1.5917913615769 1.87050585789041 1.67931274082206 -0.579912556958449 -0.128232787487744 -1.34058384196663 -0.938365162916847 0.699901028154874 -1.69347607891808 0.647664343451655 0.777922875170818 -1.71578423364495 0.549353317022241 0.920741598306244 2.23802745695415 -0.0316617379928382 1.0052373183063 -1.42100891572903 -0.888107918620061 -0.543850138122276 0.894966328255278 1.19263391316332 -1.73332565213234 0.960801791743622 -0.806874758352028 
-0.310799941216513 -0.381347194565305 -0.88757291015591 0.134360941010304 0.964292048533642 0.0110882826032247 0.0317530682771656 1.03630906524523 -0.0518713379183477 1.30428220828975 0.0550028544112999 -0.545568306480051 1.87520283687297 0.331358168949646 0.909088265738537 0.412678728439934 -1.49427275453576 0.706832428880151 0.3630025987916 0.940263408233663 -0.828319762188315 0.0801286164938411 -0.246367245196042 -0.909659604923835 -0.916397323048924 -0.157930232892468 0.996810178153981 0.281729563471027 -0.47949731080371 -0.640911137542533 
1.48722224454893 -0.707362069872581 -2.44320115541129 0.0882715480351106 -0.742574160405963 0.544364942093748 2.94359740873667 3.53327447567166 -2.74524310043394 2.83178250942784 -0.137072493227025 1.01393748344974 0.405759692753245 3.06612508079625 0.182435390478331 0.0270284607037435 1.38353869970417 0.923537995951683 -1.72269597326903 -0.719143393301704 0.859601691066942 0.929075772516509 1.27734313066174 0.839230227373348 -0.536569940096538 1.12919362014478 -0.974623768603465 0.698378017274065 -1.03768554474309 -2.36509053883605 
0.762481794619592 2.24593825376917 -0.751472232370229 2.6859639229024 2.53960834625456 1.50223826522607 0.0906995938242641 0.788072990605927 2.86155216018269 0.974067827568925 -0.91539387488098 -1.23635453486881 0.839138616409737 -0.862163513249165 0.490217832337475 -3.01704705721304 0.826371754910152 3.68984042648829 -0.441210864234618 0.777150597586821 0.291080407248187 2.25440499977193 2.84065914722674 -0.595384726538094 1.04435369786279 2.53759046068474 0.757172481095383 0.545552150863242 1.27454825645488 0.249944574385942 
0.336696534079116 0.230570163844096 -2.14440802109825 1.12256636022968 -0.884333034169331 0.38791504449551 -0.712544705497072 -0.498274720665873 -0.455872567575799 -0.812831048764778 -0.404514810362155 -0.60372160887614 0.188498354769004 0.243290604135717 -0.899341957344552 -2.15409832880789 0.865803394640383 0.277836541432233 -0.188399782921207 0.627563832461321 0.475086719323008 1.56324147987735 -1.92228029746868 2.66228262914476 2.33296681430921 1.43201793951287 3.09066571188103 -1.43699316933017 0.261042141172845 -1.21372666484673 
0.492883432734863 -1.98383090044238 -0.179761973268615 -2.10116622290228 -4.0976822309198 -2.04712356090112 1.48300833030577 1.31701592148746 -1.31064889572338 -0.286992710098904 2.81530074618639 0.44773975255922 -0.095175078767947 -0.0103327252485348 0.204545401722936 0.203885230922157 -0.654599123397097 -1.12906764550133 0.685547070383243 -0.654461490257184 -0.235168336108102 -2.0611354095511 -2.12571524405033 -0.230976110341042 0.964596662107829 -1.35593112737949 0.196234804654841 -3.65897365688928 0.553172965293981 -1.21303430869282 
-0.237071115555734 1.60961575226276 -1.64747378361862 -0.806406138843642 -1.46943283992071 -1.45168667138678 -1.33744265262848 0.883228523514745 -0.30310202278838 0.0177574455434955 -0.629550478246772 0.778250732310633 -1.44790060068411 -0.171463385446659 -0.9556618247067 1.27409715238169 2.79651649248593 -0.410126587571468 -0.533983255198975 1.27321269424219 -2.47373274072608 -1.25867942057845 0.0741616553333096 -1.36760965725553 -1.30789328957252 -0.798664878021979 0.124127688867159 0.284215943220056 0.978610024459908 -2.03026379962817 
-0.765959935871191 0.283748521017072 -0.274928964213237 -0.318366995523988 -0.915044151443367 -1.10734912934392 -0.935353146936839 0.0548857026819631 0.747091606141715 -2.09542694008725 0.694946284956455 -1.42532609903874 -0.53145728892915 -0.454750763164451 1.05984509822135 -0.701331600755893 -0.146753668337848 0.495673059631596 1.1491920371709 0.13961085087621 -2.25766464919448 0.533282411374475 -1.99285355239167 -1.41336910784854 0.307804444069119 1.34304967780942 1.23340554844977 -0.377373468519142 0.808015821890084 0.719954258462288 
-1.95677304851403 1.33013895129855 -1.84540950830653 1.78075074745454 -0.946594253196772 -1.25046990377108 -3.61438861559254 -2.12226505151651 0.0865820760719114 -1.34649798507602 -2.44587935058761 -0.183826495026227 -0.418404013238306 -0.793790658562797 0.490091316022138 -0.208901915266848 0.95204790279879 0.107457734413182 -1.93107923076737 -0.578687553288159 -2.24478473770732 3.79967492005345 -0.589619488547596 -1.9946603406544 0.416306296921468 1.11944764452816 -0.156214333246428 -0.66874797127631 1.52349581514663 -0.263637348980088 
-1.56298846138769 -1.44357564269507 0.512771196316374 -1.07675310187976 -1.81636946859975 -2.08541238157095 -0.187181093330686 -0.961753267447524 0.598207990963165 -0.107606577708784 -0.274298931472664 0.319444277171634 -0.823889524062796 -1.77421570141202 -0.619003251459638 -1.61622541192059 -0.21148547522738 -1.3052378231093 -1.29081294337639 0.15079021979428 -3.13057016710929 -0.95163784908414 -2.00318136405895 -0.444218093288502 -1.50600942902017 -1.38004640331644 0.214619101447645 -0.337633622248174 0.214645647718255 -0.717176395420128 
-0.419907318033241 0.0881349193464885 0.161647820186964 -1.59007979818965 -2.25492512756408 -0.53315960592483 -0.103768267308901 0.920922157233245 0.508668858102293 -0.86752426980303 2.96242168815281 -0.260525334858392 0.76391982668126 0.0148396533708769 -0.556303190905588 1.77211972718285 -0.812496177648391 -0.0974150092868259 2.75805791011543 -0.728786992539195 2.28814727612494 -2.8951428357329 0.344526058879359 1.5283510602276 0.777315951620011 -0.912448284515016 0.126050093384748 -0.252084593362999 -1.19794308452485 0.260439473069931 
0.474052582703661 -1.48472003204468 2.4891772776768 -4.55810300147273 -2.81624396347946 -1.4303689760433 0.665877126755342 -1.97236610178766 -3.48410195017514 2.27995945170054 2.95688422299729 0.495972604760332 3.66981562787685 2.87469866804389 -1.20642173674931 4.14680109413894 -2.66533740184125 -3.79157615048072 2.14895856090383 -0.0855089675164687 0.957896183507573 -0.315639613023047 -1.57180900248276 -0.120695273082178 -2.06153338621628 -4.0354771108723 -2.70039459414255 -2.23675257798672 -3.00704560368107 -1.06491492267746 
1.30068846720524 0.62363229386855 0.463817573264764 1.19061297626166 0.866756136523985 1.80749520183865 0.278668957236121 0.59251442739242 1.93542900266331 1.1022709675106 2.97177330287824 -0.714955198837985 -1.61437366347762 0.278858634133274 -0.832798388992072 -2.13439442550492 -1.43729469080535 0.199276417121747 3.54338788694566 -1.26247300882854 4.34614644679725 1.15363635961322 1.20432970087822 -0.97341270669598 -0.186780244987262 -0.754365520659794 1.10724430855174 1.47115662929188 -0.707964429612987 0.770286343546135 
-0.195277510889214 -0.37662477036374 -2.02533948598635 2.86571800457235 0.9215937000868 2.31935517655628 -2.3017960312335 1.75805381254108 0.0173795342564389 -0.577304555853218 1.10819035985051 0.149608222320104 0.635709008786676 -0.125999857670798 -0.685473835005233 -2.27647070178318 0.967011211087435 2.73004835608882 1.37071222386303 0.416931811021311 0.69701283232844 0.370346896174182 1.71717230554956 0.0737566257245899 2.24474761939965 1.71336306373134 1.22323251153115 -0.0443616056028362 0.108359837735497 0.171766268285021 
-0.470703629981954 0.436729578843447 -0.245470591558305 2.55792071413705 3.928740326339 0.0589891660844509 0.117050914599286 -2.52909057859763 2.84881237016611 -0.259658596402016 -0.647545418084012 0.552195259872057 -2.54559298962032 -4.85716047061412 -0.277464992021852 -0.595391020063347 1.39317046619354 1.28809050338368 0.0933387589860501 -0.186249650205286 -0.14475614034711 -0.32032664473725 0.898966179792516 1.03715454511019 -0.800753819151345 -1.9710795993331 0.591481023832599 1.75090431933303 0.592087611807623 0.637750257674509 
0.0142068220242085 -1.24561105380226 -3.17684274344533 -0.684422278029114 0.00658123079879815 2.23074894756666 -0.446214677357405 1.58862665849993 -0.382779762567102 1.30949451492522 -0.575118324506215 0.283068586228165 -0.500521743202645 1.87169825854662 -1.08625066022107 -2.20447647264943 -0.316532731365536 1.4422249086258 -1.52234131259335 -0.018897488836465 0.21873740368103 1.41377667207921 0.916940689277329 0.0671502068300865 -0.291082542741395 0.546360147148625 -0.245015338977739 -0.481243903475032 -0.940905024538466 -1.77195402842755 
-1.44641443788044 0.585943433753893 -2.87760416625177 2.24184379805418 2.62107343348425 0.0974058982876178 0.30729879461408 -2.19153421514703 3.02663718294418 -1.15482126832118 0.62766930732973 -0.559718038694272 -2.59868105823891 -3.73626404860651 0.588920528341576 -1.14805923141908 0.400101840497767 0.287012366870287 -1.55401402735072 -0.146498193910432 -0.0572849161415046 1.75448758711049 -0.0145033076427408 -0.237013181570567 -0.402449664953302 0.680807407994261 -0.328532407165932 1.84057018453746 0.844450926123035 -0.171861187792859 
-0.449865646914996 -0.3656268595585 2.96189839280165 -0.790450996031721 -0.935399845674677 0.169615083679485 0.567005778584305 -0.619148574634431 -0.0195414727127372 0.210716217834661 2.12924932020742 0.415518891836463 0.111159225889258 1.31848573365063 0.432706825366747 1.48548907601842 -2.65612834325114 -1.3356721554272 0.0969773035876282 -0.650581305628418 -0.143311586301819 -1.10584780474516 -0.936522580376786 -1.33592716192259 0.878230512618008 -1.63674633279211 -1.03850819815032 -2.487484797893 -0.731820173822291 1.90037502403345 
0.0627707929824919 -1.99825187729141 1.13269392815822 -1.74309622088546 -2.71248189253577 0.206124656854925 2.07068331840827 0.419418865909948 -2.5705889805402 1.02059975224457 0.516182281594745 -0.0109840651875484 2.5472395079542 2.67600737777575 -0.0581375502827066 0.255492733730753 0.024729798951132 0.244930440709949 1.01541004913217 0.186973128597657 0.349920975432807 -1.70908510756111 -0.700753370474967 -0.198455750764598 -0.362779097881749 -1.94546739734233 -2.06469269128935 -1.74200557048563 -0.975778998079369 0.310935422026758 
0.354709125207962 -0.792884649871549 -2.62952860830414 1.20817166304401 0.509295751251571 -0.306169157767675 -0.689314108447418 -0.999165638058703 2.59065039949623 -2.24022549388846 -1.68083084266254 0.744782056185525 -1.1405481727382 -1.48605257079009 0.255888109736675 -1.79732754233359 -0.668623471711089 -0.44152341764056 -1.17914939404771 0.593199929377494 -0.735698365438996 0.89461413537472 -1.91688797547594 -0.126867372188135 0.0509324245622296 -0.470208320083039 1.17566243267952 0.834517477771591 0.676712657351078 -1.10475830023951 
0.0573015534888531 0.340154564412419 0.569578855137218 0.10970897637424 -0.804821121815727 -0.170354056248118 -2.86965843488375 -2.24371048011168 -0.24360239186544 -0.583498294426678 -0.313978183508073 -0.0150918243947877 0.0403989885643158 -0.933703293245973 -0.912075672600385 0.705128729489819 -1.50073207173945 -1.18614919141827 2.03386434765717 0.851163851583641 -1.85063473357281 2.92150635765711 -0.72106183679613 -1.26238576846854 -1.28371012849545 0.96949766242243 -1.52221912470662 -1.26268045891597 -0.660586936937439 1.05311550686525 
-2.59671464070206 -2.32749749572687 -0.092380189545477 -1.21199521403758 -0.0609344207795613 -1.89190503173438 -0.731245417697236 -3.47854850204589 0.155566341978107 0.939162073114152 1.69054247488967 -1.43227855819073 -3.7682057631882 -2.6323104360003 -0.615138861589271 2.83333776043976 -1.40100407682225 -2.53954466131464 -0.00676368784733832 -2.3222287211837 1.53185898912193 -2.59099200549263 -2.21969725033635 0.488353599093131 -1.36615012723401 -1.05778799853251 0.181248594070717 -1.17766783764878 -0.97093686937577 1.0716983158148 
0.474976932015834 2.71421765055953 -0.717815007603498 -2.40237591694716 0.429809289504707 -0.547825647955453 -0.267284243863713 -0.600110163998501 0.385910363972882 0.58383401502586 -2.05209727665625 -0.618431062422082 0.52216174967884 -0.138944000611423 -0.629680844570481 -0.290790206664209 3.50320438911956 -1.32874710506867 -1.26032148668832 0.808421513075714 -3.06698882542066 0.645913172877307 0.883345205974025 -1.63351994732654 -1.91079348263856 0.361021997999938 -1.49548930149224 -1.01319613557801 -0.0641807563549091 -3.25197566871974 
-1.44798133010408 -0.864528096739909 0.045882289463588 2.82060057602998 -0.26882611720327 2.29306966416913 -0.749425054691884 0.226625496380855 1.09514599687502 0.48591438763244 0.545659630188039 0.121450282483081 -1.91972432130649 -0.890462355313747 0.672949732500207 -1.81914709389314 0.00680425672219485 1.71154728187233 0.0509462156698321 0.532138790364627 -0.0799593552322859 0.812567649477512 1.01784587959474 0.494000640623444 0.70112328955717 -0.62343118824698 -0.453965401321163 0.532305686266439 0.0175224815996818 0.234933554636979 
-0.547479247109054 -0.353853883504246 -0.289619675717858 -1.67327260375894 -2.26777662624623 -0.722363766627034 0.590985425108442 1.48908450022592 -1.83679401649625 3.13713583578538 2.2361574512486 0.00690983643757555 0.341451274649534 1.59464378012051 -0.963266281291187 1.93314477343181 -0.20516796011007 -1.000503344301 2.29163603799135 -1.66058284635628 2.81454432986331 -3.19806690232578 -0.159759627748887 -0.582759904010387 0.301610820535276 -1.27606243894434 -1.67114497530722 -1.83798426606475 -1.47631680718479 -0.683098033444662 
0.911240346471938 1.24105087787785 -2.48257704381075 0.550607630959094 1.78234329035183 0.763631290524389 -0.821974929165662 -0.0824007705197437 -0.794018188441489 -1.26752532713924 1.84729836431873 -0.755678190333824 -0.260096114468959 -1.22921099012755 0.702062238525367 -0.933975925089685 -1.15009995978704 1.81539226516831 0.414232347608215 -0.566333470932137 1.04827231376187 1.72933466599041 1.40859704834211 1.00995619201209 1.51621202965161 1.43610879263639 0.258401528179396 0.338178137852667 1.56405779821088 1.17237438994754 
-0.899407388054866 1.41254666773416 -1.13220004829545 -0.49115106426599 1.28775981594314 -0.166655642993814 -0.338104503887172 0.573964215700626 0.374137473153452 -1.16220790871613 -0.0269651940993586 -0.91484671207135 -0.0749002626116467 0.332190356436043 -0.944145275748545 -0.834067180487284 -0.277772939363058 0.378176775643575 -0.549740316785016 0.580745029875791 1.55635594633365 1.35142405552601 0.341737133778215 -0.304348781839499 -0.032427838592723 0.969354816682485 0.208908532339392 -0.141127162435016 0.127924838983961 0.108575010215093 
-0.680517400389839 -0.837609486939636 1.97434785030366 -1.01063176754557 0.965710085915738 -1.21437098925543 -0.126074970241188 -1.65151127955166 1.83039648299424 0.310186311662225 1.21912971029996 -0.821525627183418 -2.90911170373517 -2.22593465524729 0.8856887551257 1.56574081568635 -0.134141186004396 -1.34575818776739 -0.222483827211845 -0.473480151201112 -0.628781413695598 -2.1102199558263 -0.554648806351754 -1.38096158257407 -0.115277968789392 -0.994382078592884 -0.378819109487959 0.105203787284178 -0.583321469334603 1.53134893956608 
-1.10721407792533 2.15055716189267 1.31514535606648 2.98133138104456 2.15574955644536 1.26956797884922 -1.76712434701827 -1.72737982291635 1.87659382340365 -2.53253005475421 -2.57824488014502 -0.308036789202831 0.837177093775445 -3.51465605835502 -0.347706208266177 -1.50028492249774 -2.07083619181249 -0.384267601939446 -0.188663648431791 -0.725285374041988 -1.83051182775735 4.82485449215707 -1.24828862665562 -0.612850007849467 1.17150185967742 1.95911540744795 -0.515505215376404 1.28944651030075 0.727394901226341 1.43494276576441 
0.855662334671324 -0.482129955442314 -0.672646036861507 -1.53423019388611 0.415889609432747 -1.15887556408638 0.137849203909154 -0.174056289069353 -1.37083037946232 1.80289065709021 0.46357656793939 -0.441124802721343 2.69105779807122 2.33161562883614 0.0264946375181247 1.53721753259958 -1.9974235115782 -0.343411392622035 -0.599385930879943 -1.2216435116608 0.842806135799988 -0.809509695345978 1.33265374054051 -0.52351851545701 0.718063987965032 0.114172472184143 -1.13747869460941 -1.20850832774345 -0.635661962787283 -0.648631515896691 
0.0302633122011857 -2.95801009914258 3.08474794023903 -2.13700013320581 1.06224904053181 1.93736007538172 -0.352487084247749 -2.58293849560592 -0.40546684698781 -0.178573164963525 2.87305640542215 0.370563649271316 0.50314205123291 -1.01323220337459 0.327825052649101 0.0960086000019616 -2.62092202569792 1.26054927903723 4.05764874734051 -0.892996354779282 1.80746184798589 0.54777510337867 -0.151718215005067 -0.318356772187661 -0.390908910190024 0.602299517110161 0.210337949472114 -0.256047659173544 -0.732588028671317 3.53367024681627 
1.04689326173848 0.724029459917695 0.652781472002741 0.384319574301117 0.455815692559656 -0.949244816012424 0.0494784481056655 0.15422252628746 -0.410885149153829 -0.468313063702317 -0.111693991416364 -0.747349623004394 0.561602385469721 -0.0114386382314454 0.790103896847876 0.486037036700096 0.00999150703284859 -0.345674829930943 0.837230410693706 -0.290530573887624 0.728525411961772 -0.0893150203426243 -1.03982915016955 -0.842123929899361 -0.494730444684793 -0.752862303975194 -0.143390335310426 0.848653812678779 -1.12976575514992 -0.03522747979117 
-0.735067666006826 0.569444127791011 1.63055489562593 -0.524101019155079 0.366279755315935 0.216905095107113 0.232788061426581 0.0481502573008841 -0.4972935288342 -0.592111845262408 -0.0816226416036869 1.33215248617561 1.2482494500978 0.268457804081181 1.544153493273 0.163156931735945 1.40432535744214 0.190902018399887 0.548134644123999 0.189106404283876 -0.54691335206708 -2.174565915541 0.419473252859128 -0.262899245209673 0.564223793541674 -0.893856252675914 -0.274897521758309 -0.412338164661254 1.15655944503253 -0.115584928546279 
-0.795353660456786 0.0400297463677373 -0.455748092492412 0.481628339976957 0.64039987493945 -0.231385548469177 -0.639514732507237 0.280950370369657 0.994459844168058 -0.947372985512798 -0.96210712715002 0.941442821242846 1.03362531775166 0.311517877410181 -0.93297791994492 -1.01897394649845 0.534151336372227 -0.878309821595761 -1.39037262317525 -2.27719518769848 -1.56053469661876 -1.06977845312862 -0.934604963771352 -0.724564790691496 -1.1749110908208 -1.31811140993326 0.650307102266191 0.103292913774191 -0.732072094318556 -0.0418248983973165 
-1.95433392259614 -0.360430809147163 -1.15381024795577 -1.46379295986954 -1.14659086239195 -0.625361097664557 -0.892215846871572 -0.262561963748137 0.0448344059839304 -0.933920192319207 -0.371741993132712 -1.36674061881421 -1.87773599516108 -0.278348077827767 -0.376195702654855 0.398667217934868 0.97164330732847 -0.390094742919031 -0.116537078861473 -1.01612645421552 -1.29466253299771 -0.773529571145296 -0.647578132924058 0.652730016830004 -0.914676235572264 -0.548384183193028 0.275664060476864 0.698776701262139 -2.4570046233991 -0.553152609799226 
-0.80514549301519 -0.779060383008364 -0.0713713474927023 -1.72014319963662 -0.515708197111655 0.519874773152634 0.27477235632683 -1.02542463742455 -2.75082390971841 2.34018392987522 0.153152097703919 -1.90339640309867 -0.581432879124725 -0.289907412309873 -0.620539583840605 0.316618724303929 1.1550244678121 -0.592399973205376 0.0430333468486114 -1.88673601302519 -0.763668566706394 -1.79256708953033 -1.88885967717978 -0.97648863389174 2.02863754953491 0.414078265288631 -1.15621534788018 -0.136745548343836 -0.176837577847102 -0.356739116503283 
-0.421690466159713 -1.36433820015582 -0.949553112017717 0.630564035898163 -4.50792496917694 -0.641186309070234 -0.46282255496954 -1.62475278359399 -0.849371246500382 -3.29301077588602 0.433447490054334 -0.824594814513955 1.39629325406261 0.166218745155094 -2.24432260695172 -1.26408632923947 -1.38997593529769 -0.815182711422468 -0.699531742241229 -0.477841566206663 -0.861536316638489 0.338786876173164 -1.13877066189235 -2.69445021437034 0.334051393308443 -0.386994861729955 -0.47913157815611 -0.681294994692819 -1.83293996095331 -1.80636823127686 
-3.15499930176755 -1.35052465943325 -0.795698141547397 -0.664813903503679 -1.37495283168439 -1.27771177821485 -0.870172607900246 -2.44605133968702 -0.857199258482603 -0.676404238201181 -0.624405323686362 -1.04237712889321 -0.387600897851239 -1.3754457171137 -2.83947949083168 -0.807748665957768 -1.68898674476773 -0.520699424644706 -0.329012503774578 -1.58973657644628 -2.03153929291929 -0.479331214644796 -1.12044139460469 -0.684106811415624 1.73794544354716 -0.924401251033513 -0.120515947694799 -1.34548514298497 -2.15716083037706 -1.56846218717583 
2.00155128664887 0.759268758157754 -1.40118195632464 0.892806770274153 1.99366115907919 -1.45755576111431 0.170036126945369 -0.551913907459672 -2.32062732302708 -2.11195185742129 0.497910706093309 0.549052084487404 0.509710890726651 -0.183105902986772 0.63234212664612 0.584030387268216 0.618681683628711 -0.727824504380495 -1.12302422836663 -0.0660170428119444 -1.36691858186914 1.8568216068918 0.486293849426349 0.744367570018802 2.09088307158589 -1.21880156213699 -1.27072097049192 -0.70160797387826 -0.0295309064636176 0.44724769159406 
0.177281150624796 -0.583216060390414 1.14818164964826 -0.230197016218237 -0.997278022876645 -2.53822945280763 0.907448437357246 -0.276100337123544 1.11715812993772 1.47760783751143 -1.07336878643872 -0.764512299631226 -0.504390321211613 -0.721621651138062 -0.347860441113232 0.412962345610022 0.347965969760982 0.527800659633615 -0.695223277844298 -2.16356051933339 -2.85314156303114 0.130954382497953 -0.803456110895055 -0.0265932020510754 -1.23495483174715 -1.346414470502 -0.893472745235683 -1.17495098222994 1.46257976200128 0.566761125961836 
-1.17207854984617 -1.09532073027464 -0.907509449294348 -0.714499296988805 0.585573898013259 -0.293019029358077 -1.21225662972766 -1.50811499714025 0.806759773412701 -1.48855369454752 -0.751430233085996 0.278257512258211 0.169116183762182 0.141943465388828 -1.34443241288429 -0.880458064035512 -0.386560061936802 -1.45154801450292 0.226293680102915 -3.10501814505033 -1.46503985748911 -0.00980258680627907 -0.779025673453993 -0.265946466376929 0.431502211987176 -0.580928788248946 -0.488043885736711 -1.59495880852229 3.10298109735767 0.833938290478687 
0.251337507228617 0.268857134750596 -4.23361223585657 -0.709461166344346 -2.14603913984535 0.091602446496607 -1.10509877445059 0.0445531108908306 -1.53886927192236 2.99271299511356 0.392391964684564 -1.38236361837513 -0.0710739805822158 -0.0366492472526107 0.00423838410675589 -1.68319809446028 0.540780953244839 -2.89047009526946 0.73068541443828 -1.36727391016248 0.513191519223534 -0.523338939332817 -0.00873350861268881 -1.88727814988937 -0.213106420067227 0.403585139015478 -0.283392225407609 -1.07408749686583 -2.40413164144769 -0.153265545274041 
-1.40129115759074 0.303828866328293 0.43967379446624 -0.895281719397491 -1.64155001636811 -1.72302240223674 -1.11664696978279 -0.351074983074299 0.669741862309474 -1.20094372096385 -0.532589022522282 0.205966954034165 -0.795104556155841 0.141104801244958 -0.103990245454303 -0.274037404037474 -1.26133997319477 -0.685903145381422 -0.0301181080434019 0.383492430082637 -2.4866365597103 -1.52292564198621 0.798384231240596 0.694933385803625 -0.65036734826957 -1.10469195368414 -0.337426422291549 -0.284761873916433 -0.782900525183763 0.49330291179806 
-1.41653010246599 -1.0419311877415 -2.38762928194968 -2.19211424479891 -0.61069192327011 -0.770732492831523 -0.401968414587975 -0.0716127135153199 -0.484169378893936 -1.14461904697251 -0.452189925127767 -0.146842796744546 -2.63845016285234 -1.0784228510518 -0.894278598747683 -1.47781715039228 -1.19148011900417 -1.83479214716276 0.244274218909872 2.28713857582211 -0.897218879167225 0.00992997696167848 0.100971638845035 -0.544812034217112 -0.607421238195032 0.424324953634547 -0.0485312317818914 -0.846444372718847 -1.68716442925275 -1.57421428275446 
-0.375341399072003 0.178325867984184 0.630195615303174 0.692708021051745 0.180086693323444 -1.16539696584312 0.793716679292697 -1.14293853588754 -0.322707851513741 -0.467824200742659 0.58566920409448 -0.866313587059051 -0.548502926353925 -0.328898062902659 -0.664534235882825 -1.02273723977347 -0.340110083770671 0.355055818132208 0.369546962819674 -1.12710313041322 0.138152719734979 -0.297264175761045 0.405343314402858 0.672983481529843 -0.123634837636614 -1.07438135813835 0.805837470351978 -0.949870959302191 0.094021119460045 -0.0926449577252616 
-0.580011803273064 -1.85471169030782 -1.83655800503274 -0.125733111421671 2.48676903907379 -0.21462598956976 -0.583095603407659 -0.379513210516219 -0.799127783186605 -3.17688602621439 -0.552979204667691 -0.535305285127359 -0.635443798270525 0.433408668439393 1.1907849416184 0.223087653772176 -0.956660949185523 -1.4863044332674 -0.714076257970017 -0.617850244021396 0.112999827907931 -1.30074808672142 -0.924468080639624 1.24303049956241 0.56958142628567 -0.683282707763962 -1.000135245774 -0.27640037380863 1.04076679182098 -0.500125786777966 
-0.620486563787914 -1.09805554181354 -3.30433674842798 -1.00095710879356 2.35911971884529 1.84545171979358 0.0716116265674104 -2.30623100782838 -0.155864457143898 -1.06114298294175 0.392593122800605 -1.09469398286181 0.741516097251179 -1.06085464085529 -0.388663948207306 -0.730258413932476 -0.110858194619895 -0.663976399917123 1.00986187682558 1.29807679187343 1.74253402372506 0.02305237908294 -0.278671179501514 -0.468819113195134 -1.14656834458263 1.63348573335599 -0.47607983101312 -0.248260439869488 1.9829898585054 -0.169294725727376 
0.108069373680062 0.195233399833493 0.632110807919557 -0.278307902430873 0.59446290253187 -0.610745458561532 0.247932489763504 0.261978900833425 -0.163644937148826 0.142898469998464 -0.314899924326311 0.309554883349676 0.0491246736015683 0.618712943984232 0.519891112054829 0.225819364071319 0.544762314186558 0.111333306008378 -0.620997623866713 -0.867781315404355 0.697992581777677 -1.22428896074316 0.226692781738482 0.329738590964 0.444408101391231 -0.203092279721028 -0.761369686396934 0.506609516412921 -0.282703785394993 0.578166046483687 
-2.11085855298014 -0.201094219353947 0.412292560364524 0.915808119516944 -4.38720164012133 -0.523098336304182 -0.795344907097192 -2.2804959104966 0.148040776846627 0.558521397773512 -1.01054528416673 -1.53883829976258 0.0361799797555214 -0.142874054058149 -2.83445259013383 -0.587480325403957 -0.865719005707953 1.31846624655397 -0.475062341894264 2.74111291189622 0.857967228628756 -0.300293154297682 0.741555692585235 0.353585125596736 -0.263660841147186 0.172808284358051 0.573470147904733 0.404090117359713 0.488316111259865 -0.705438945636544 
-2.15912660917525 1.53814649436681 0.158155933280314 -1.47636995958081 -0.747962861233412 -0.763816638292248 -1.09250760535776 -0.615234930307557 -1.79578968375409 -0.620712706000619 -1.20616775193127 -1.39974112415329 -2.7653727244491 -0.468594341641914 -0.33235451855253 -0.548412805016614 -1.38194848815573 -0.395417562473781 -1.05774638850565 0.567130365308904 -0.30871489981448 -0.400674679668474 0.6773694038821 0.06164632569119 -1.78474621824367 -0.024593262299906 -0.927355161076051 0.555462055917023 -0.697753422488461 -0.344610388785095 
2.29230790398962 -0.196731108050723 0.485510865840129 -0.519515920176002 1.56788422293354 -1.05477377042756 0.636875712562709 0.712232449042572 -2.48719234193849 -1.59430660249786 -0.0856298977835432 -1.39771336835117 1.21099401701166 -0.230640869909282 1.8652713848519 -0.671173065930804 -0.594516804726433 0.417644742996041 0.0389231715344947 0.149467240436031 0.670247042779565 1.17434236978206 0.785442004780716 0.49137420151036 -2.39429557037054 0.705166856681041 -0.431972953127361 0.00904706640701005 -2.05219222907045 0.857060535153785 
-1.56064578996646 -0.778315839958456 -0.333082374773434 -2.30356119663428 0.820857552772451 0.568333969717273 -1.02288591141738 0.596918922674249 -2.06550521161204 1.51772768724742 0.171008010115554 -0.950689652661397 -2.50109443198162 -1.62834597636579 -0.541762724013035 -1.40146695779363 -0.944853464043431 -1.32338150877219 0.543215922006546 0.781865536531152 1.72447537520069 -1.32997856515553 -1.17769416018931 -1.5958633297279 0.378102266528424 0.00465034679021301 -0.00615519058451425 0.209573129757667 -2.32987549824046 -0.703560665221881 
-0.955508646373928 0.257048030691787 1.20326482313525 0.318904358051716 -1.46465783827073 -0.481139460035116 0.358939957886632 1.18077156431777 -1.93426263432095 -0.801650453311499 -1.07309469429435 -0.639000015365394 0.399648969749567 -1.23851804605949 -0.191148122731972 0.717717853048083 -0.0818746113176681 -0.270621249862314 -1.04515874865535 -0.22953077912516 -0.876284212803097 -0.218747080788707 -0.908198578955762 -0.951060348374735 -1.63497919992308 0.28666073831232 -0.517791117785901 -0.589117423865849 -0.96354761841005 0.710934775297364 
-1.10592459697891 -0.392243601191804 0.22574020301664 -1.21775788036114 -1.34525365375695 -0.233349370961073 -0.180535041676219 0.012344692774319 1.74211296419026 2.81145781509224 0.39128495206925 0.579488803583477 -1.58611794281851 -0.939125143102087 -1.52252151975286 0.393712441601334 -0.209604381964422 0.436604241650281 -1.86572346331214 -2.51858158301812 -1.31154162305925 -1.24441208753211 -1.60453118190131 -1.40768851296131 0.432372978349617 -1.59394015297287 -1.85060019964176 0.202266736385792 1.21880924397309 -2.24178487263064 
0.524069997058963 -0.104927824981008 -2.50577351946551 0.0921143175757925 1.57426689856145 -2.27331456529384 -1.58799979235229 -2.14937984342883 -1.90833021823368 -5.81657067908403 -0.576876440631838 0.74563219607285 -0.65909414487191 -0.281454716129103 -1.12691948634886 -0.731673818859387 -0.811190378168453 -1.63069556200379 -0.930948431921136 0.888562298318902 -3.36007918028758 0.633823599227269 0.124301704564542 -0.946863697285956 2.39996537588315 -1.06085368781229 -2.78043300267229 -2.00894433405547 -2.97105518846665 0.786856822682876 
0.536808420537991 -1.28070088997159 -0.720210573417979 0.473133936759134 1.76305230498431 -0.483515991163736 0.244162388958733 0.576969517368455 -0.0767612899949321 -1.14333622714982 -0.338043856818619 -0.721620538726141 -0.0457700554595945 -0.541591986356965 4.02701078036322 0.477570064784028 -0.065857942599465 0.489105054193679 -0.910561307413195 0.27439486877059 0.429310504832114 -0.108748549997411 -0.500511398761749 -0.136298884286916 -2.21051433469992 0.56024107925535 -0.335146213702121 0.199166675984126 -2.35841181633795 0.756003162879905 
1.73102776150908 0.0406154340541793 -0.937797713699265 0.701136425901607 -0.121417484031109 -0.11766897612075 -0.0608620593866121 -1.42952950016298 -0.125422518382737 0.897140604752419 1.45544517950241 1.57316318107553 1.36010644659777 0.230619165790863 -0.723877857327852 0.248554169014415 -0.297180993213803 -0.514997938470936 0.439535743081143 -0.538269363106235 0.452144012969076 1.91530554576643 0.0950750013367343 -0.167147290100032 -0.515513781493077 -0.573876653458981 0.161102032982929 -0.299989507686398 1.34826186167002 0.16917160247369 
0.674982276907641 -0.132411988484701 -1.5916240986018 0.290452687043926 -0.592066143910035 -0.36237317806897 -1.28067276394536 0.921308768434671 -0.118933198054273 -1.32826678425186 1.69878429660382 1.02395500430847 1.11570023798193 -0.901123150305024 -1.21319082957154 0.46889402578579 0.0168981051658182 -0.745742230482766 1.37003893475549 -1.14354331300822 0.452030123031572 1.40674480151691 -0.0825596165216571 0.330460786678414 -2.93193577955478 0.121162736414223 -0.423337246887963 -0.656745233672041 -0.817823353039911 0.0993680759952273 
2.29467155136438 -0.981486365577721 -1.13334481189922 -0.787964135637613 1.63053616268287 -0.600708462082976 0.682463022665215 1.66123746553662 0.11783901690092 -2.07739193093414 0.218740270805135 0.39785198012665 -0.794666209577378 0.699802951004523 2.13515061013835 -0.158490426040904 0.715913583655093 -0.581153581714263 0.0966604885893396 -0.559751473660791 -0.655667210676563 -1.53674266001999 -1.05682032873436 0.087621781576799 -3.30855806139057 0.713207395829895 -1.02593908756478 0.196956327976875 -0.922852643625624 0.667318986990341 
0.935986393147161 -0.681966836764215 -0.133676196012176 0.433292069874865 -1.9124432462741 0.622112851960063 -1.23479206981463 -0.90774289650488 -1.21014423134174 1.34639979779553 -0.102985413860736 0.419851126260111 1.2715071745167 -0.0496122377791773 -3.5066546044249 -0.115343329543797 0.993743787378378 -0.431781149514469 0.15642275608417 -0.960905123163956 0.263661759717559 1.30110819012597 0.692120431468744 0.150131930300117 -0.365319462129427 -0.404711878594907 0.491060939933212 -0.907277612921519 -0.117049780642174 0.426567904915758 
0.263852324628957 -1.61600372479733 -1.45191250694672 0.746982075906403 -1.84017080147762 -0.642705648171114 -0.343936777568214 -2.12694576658296 -0.426696905456577 -0.508207630223685 0.444905723853924 -0.103459192036954 0.885737607133243 0.542182940163307 -1.55317143231773 0.0523442424474143 -0.704976948920455 -1.11507783094727 0.120103858874613 -1.23429887262325 -0.229463804048813 1.61999375683523 -0.234062031509841 0.299587451979683 2.28615545401744 -1.00074061388613 -0.811100156105788 -1.27485983093481 -1.76432925337699 0.517145152596251 
-0.223513664223556 -0.83310952605579 -1.48187757207707 -0.755360778811683 -0.448264585081756 -0.752479352814636 -1.28415296008718 -0.487429693402479 -0.0470237662051341 -0.751358512722754 -1.48466289479023 -0.00114100510119597 -1.13381162768655 0.434673527832578 0.733447629636852 -0.0504772345444357 0.127545805660554 -0.447546268126806 -0.946403721773494 0.16105702117605 0.215306497136029 -2.20385535498046 -0.42641227386028 0.437782478101922 -2.27158501790324 -0.940406179341386 -0.618361555622417 -0.754539745648816 -1.43196534428184 -0.650857796628654 
3.67989405788578 -0.717908884723873 1.19097206453914 -0.343238259863423 -2.28013844507147 -0.242299382006292 1.87768985493113 1.23969612588063 -2.65226192008959 1.74957233266645 -0.872716199764183 -0.689797686074138 1.0697279324023 -0.739676181696967 0.507507561202359 0.0458178176895545 -1.1132840390176 1.61572079659075 -1.75923598983961 -1.52489034954694 -0.722152622500535 1.36916351740819 -1.75420548744129 -1.39229526032584 -0.465668239925335 -1.63871498721037 -0.0287332411998867 -0.0501056525400991 0.229839931089921 -0.844298107520776 
-0.668842936691037 0.00628661498441618 -0.281763349330813 -0.560746738894057 0.0976279469025071 -0.180248620019556 0.449308112515879 0.136301120272779 2.00008142899091 1.14350893918326 1.53144918035324 0.029048714551986 -0.688342329430781 1.36725414952876 -0.181621496763838 0.31383939066792 0.371548925958144 -0.67612633658564 1.48388545826311 -1.02481336171937 0.073727629801642 0.827139717542024 1.34262693021469 0.966941032880622 2.70780224855728 1.03207351155198 -0.661680379729466 0.528908769359413 2.49253253881989 0.802099223655747 
-0.42619421173368 
-1.79278140730592 
-3.61027792068656 
-1.83801848129335 
-2.40146850314894 
-2.01846131244718 
-1.13984326332109 
-0.257137328181544 
1.63974222442251 
-2.01230050181995 
-1.19676593127294 
-0.960398814335404 
-2.13288215443217 
-0.764505086116691 
-2.9138881624972 
-1.32653681036222 
-1.27862267586407 
-1.96829932913886 
-1.25945150144159 
-1.61186250433704 
-2.61391336273413 
-2.13691103883109 
-1.50235808342592 
-1.29008556029987 
1.80389841214081 
-1.67150422417314 
-1.24000855976652 
-0.786400366609547 
0.145568163098296 
-1.08126570485598 
-3.11936334901838 
